prepare -0.13794144988059998 0.21263058483600616 0.013614870607852936 -0.03664572909474373 -0.11039526760578156 0.10727836936712265 0.056131135672330856 -0.14155307412147522 0.09626485407352448 -0.14926019310951233 -0.04799967259168625 0.09373789280653 -0.12524349987506866 0.04159665107727051 0.1009751707315445 -0.0039580389857292175 0.04854010418057442 0.035117439925670624 0.13215604424476624 0.03900247812271118 -0.14793862402439117 -0.1000526025891304 -0.012625545263290405 -0.2791860103607178 -0.14127349853515625 0.26109662652015686 -0.24135880172252655 -0.04632425308227539 -0.12526735663414001 0.03999992832541466 0.13089531660079956 0.10327216237783432 -0.04858982563018799 0.02279922366142273 -0.06954801082611084 -0.08145657181739807 -0.008178887888789177 -0.04038459435105324 -0.024266580119729042 0.008435008116066456 0.047079771757125854 -0.20573994517326355 -0.06274936348199844 -0.2644599378108978 0.017112763598561287 -0.1607571840286255 -0.017904972657561302 -0.017560439184308052 -0.13418100774288177 -0.008684713393449783 0.1494137942790985 0.2904103696346283 -0.04246390610933304 0.17475923895835876 0.01279008574783802 -0.07288844138383865 0.026616377755999565 0.04406515136361122 -0.033716704696416855 -0.01139127742499113 -0.13408473134040833 -0.07536152750253677 -0.210165873169899 0.07371880859136581 -0.03699696809053421 0.0017783320508897305 0.02499573491513729 0.10492859780788422 -0.14695383608341217 -0.037969931960105896 0.206977978348732 -0.0346452035009861 -0.06245345249772072 -0.23296859860420227 0.08085836470127106 0.10008494555950165 0.08988766372203827 -0.14535602927207947 -0.2769618630409241 -0.10762360692024231 0.04904986545443535 0.044966038316488266 -0.1285819262266159 0.10798674076795578 0.16377609968185425 -0.00123640988022089 -0.1202588751912117 0.06376494467258453 -0.01189752109348774 0.15082071721553802 0.16859957575798035 0.007093361578881741 0.0689401775598526 0.1333000808954239 0.04340687394142151 -0.08131950348615646 0.009925203397870064 -0.14661905169487 -0.05803525820374489 0.05620872974395752
exceeding -0.4029729962348938 0.02173139899969101 0.5143859386444092 -0.3175303339958191 -0.27328917384147644 -0.10550030320882797 -0.1278916448354721 -0.11940962821245193 0.200643390417099 -0.21013367176055908 0.29921695590019226 0.7166505455970764 0.21773086488246918 -0.08090270310640335 -0.11160311102867126 0.17773215472698212 -0.0953352153301239 -0.21437427401542664 -0.03482888266444206 -0.01196863129734993 0.0028830072842538357 -0.15623456239700317 0.14066898822784424 -0.2778051495552063 -0.12460608035326004 0.5412557125091553 -0.0978144183754921 0.10591091215610504 -0.2312307208776474 0.1487543135881424 -0.07428641617298126 0.16134057939052582 -0.250470370054245 0.07286535948514938 -0.29317381978034973 -0.1397271454334259 -0.6823264956474304 0.04331638664007187 0.14908477663993835 0.3213302791118622 -0.008500135503709316 -0.2944364547729492 -0.6209267377853394 0.29406607151031494 0.19298884272575378 -0.06559371203184128 -0.06503770500421524 0.0897260382771492 -0.05675436183810234 0.30947181582450867 0.2905919849872589 0.18348118662834167 -0.14820125699043274 -0.07197367399930954 0.18331687152385712 -0.33019042015075684 0.41462260484695435 -0.06512048095464706 0.1536964625120163 -0.03357124701142311 -0.03255709260702133 0.11339838802814484 -0.36951276659965515 -0.17528007924556732 0.28833505511283875 -0.13923931121826172 -0.2034507542848587 0.23317191004753113 -0.48004400730133057 0.13472391664981842 0.5428584218025208 0.26371249556541443 0.07405909150838852 -0.4648880362510681 0.07848424464464188 0.07300809770822525 -0.0022932712454348803 0.09196805953979492 -0.1031322330236435 0.023990504443645477 0.2115367203950882 0.08996888995170593 0.20580615103244781 0.24482077360153198 0.20952323079109192 -0.004191840998828411 -0.1778773069381714 -0.15565235912799835 0.20085185766220093 -0.07417146861553192 0.21565206348896027 -0.455469012260437 -0.2497931569814682 0.46279579401016235 -0.035649996250867844 0.023751378059387207 -0.11666890978813171 0.01685137301683426 -0.13127529621124268 -0.05383950471878052
